%YAML:1.0
opencv_ml_svm:
   format: 3
   svmType: C_SVC
   kernel:
      type: RBF
      gamma: 1.5000000000000001e-04
   C: 5.0000000000000000e-01
   term_criteria: { epsilon:1.1920928955078125e-07, iterations:1000 }
   var_count: 2
   class_count: 2
   class_labels: !!opencv-matrix
      rows: 2
      cols: 1
      dt: i
      data: [ 0, 1 ]
   sv_total: 79
   support_vectors:
      - [ 4.59000015e+01, 1.00293831e+02 ]
      - [ 7.50987673e+00, 1.11362961e+02 ]
      - [ 8.56419754e+00, 1.39583954e+02 ]
      - [ 7.72469139e+00, 1.23782715e+02 ]
      - [ 1.52901230e+01, 1.35704941e+02 ]
      - [ 1.22135801e+01, 1.39067902e+02 ]
      - [ 6.15802479e+00, 1.34892593e+02 ]
      - [ 1.02777777e+01, 1.11986420e+02 ]
      - [ 9.79506207e+00, 7.21197510e+01 ]
      - [ 1.45234566e+01, 1.01154320e+02 ]
      - [ 1.10098763e+01, 1.22232101e+02 ]
      - [ 1.06074076e+01, 1.26617287e+02 ]
      - [ 1.17716045e+01, 1.30100006e+02 ]
      - [ 4.47567902e+01, 9.22037048e+01 ]
      - [ 2.32987652e+01, 1.14328392e+02 ]
      - [ 3.01691360e+01, 9.83913574e+01 ]
      - [ 1.02209873e+01, 1.39061722e+02 ]
      - [ 1.47950621e+01, 5.89382706e+01 ]
      - [ 1.25580244e+01, 9.99604950e+01 ]
      - [ 1.22345676e+01, 1.39155548e+02 ]
      - [ 6.43790131e+01, 8.49691391e+01 ]
      - [ 1.33851852e+01, 8.40962982e+01 ]
      - [ 1.21098766e+01, 1.09828392e+02 ]
      - [ 9.64691353e+00, 1.27014816e+02 ]
      - [ 8.55506210e+01, 4.89654312e+01 ]
      - [ 1.40716047e+01, 1.02602470e+02 ]
      - [ 9.06679001e+01, 7.02580261e+01 ]
      - [ 1.10604935e+01, 1.29634567e+02 ]
      - [ 1.33296299e+01, 1.41346909e+02 ]
      - [ 2.47382717e+01, 1.17388885e+02 ]
      - [ 1.61432095e+01, 1.09413582e+02 ]
      - [ 9.19012356e+00, 1.30556793e+02 ]
      - [ 9.43456745e+00, 1.41155548e+02 ]
      - [ 1.67308636e+01, 9.07432098e+01 ]
      - [ 1.04209881e+01, 1.29209869e+02 ]
      - [ 1.17691355e+01, 1.28399994e+02 ]
      - [ 9.17530823e+00, 1.14350616e+02 ]
      - [ 1.23234568e+01, 1.15420990e+02 ]
      - [ 3.59456787e+01, 7.57530899e+01 ]
      - [ 9.65802479e+00, 1.35650620e+02 ]
      - [ 1.27061729e+01, 1.19906174e+02 ]
      - [ 9.61851883e+00, 9.68814850e+01 ]
      - [ 1.02320986e+01, 1.03693825e+02 ]
      - [ 8.64074039e+00, 1.07390121e+02 ]
      - [ 1.14864197e+01, 1.06253090e+02 ]
      - [ 3.47037048e+01, 7.67802505e+01 ]
      - [ 9.92469120e+00, 1.20330864e+02 ]
      - [ 1.02641973e+01, 1.09932098e+02 ]
      - [ 7.37037039e+00, 1.15065430e+02 ]
      - [ 1.27913580e+01, 9.10037003e+01 ]
      - [ 9.94691372e+00, 9.88419724e+01 ]
      - [ 1.43209877e+01, 1.04433334e+02 ]
      - [ 1.08740740e+01, 1.08187653e+02 ]
      - [ 1.90111103e+01, 1.15690125e+02 ]
      - [ 2.48197536e+01, 1.09417282e+02 ]
      - [ 8.12469101e+00, 1.10501236e+02 ]
      - [ 2.12098770e+01, 5.55395050e+01 ]
      - [ 9.18024731e+00, 1.16751854e+02 ]
      - [ 8.21111107e+00, 9.74345703e+01 ]
      - [ 1.10172844e+01, 1.26854324e+02 ]
      - [ 7.31234550e+00, 1.33911118e+02 ]
      - [ 1.05012350e+01, 1.19549385e+02 ]
      - [ 4.09012365e+00, 1.19234566e+02 ]
      - [ 2.05580254e+01, 1.08360497e+02 ]
      - [ 6.71358013e+00, 9.56975327e+01 ]
      - [ 3.80135803e+01, 8.11234589e+01 ]
      - [ 5.20543213e+01, 9.57913589e+01 ]
      - [ 9.20740700e+00, 1.14297531e+02 ]
      - [ 1.78888893e+01, 1.13227158e+02 ]
      - [ 6.64444447e+00, 1.15350616e+02 ]
      - [ 1.03098764e+01, 9.56407394e+01 ]
      - [ 7.48148155e+00, 1.06135803e+02 ]
      - [ 5.82222223e+00, 9.84197540e+01 ]
      - [ 1.00839510e+01, 1.02633331e+02 ]
      - [ 8.31728363e+00, 1.07041977e+02 ]
      - [ 6.09135818e+00, 1.05927162e+02 ]
      - [ 1.27074070e+01, 1.32455551e+02 ]
      - [ 7.57407427e+00, 9.93530884e+01 ]
      - [ 8.52962971e+00, 1.06546913e+02 ]
   decision_functions:
      -
         sv_count: 79
         rho: -7.6650339379647159e-01
         alpha: [ 5.0000000000000000e-01, 5.0000000000000000e-01,
             2.0338547069065291e-01, 5.0000000000000000e-01,
             5.1937275802013003e-02, 5.0000000000000000e-01,
             5.0000000000000000e-01, 5.0000000000000000e-01,
             5.0000000000000000e-01, 5.0000000000000000e-01,
             5.0000000000000000e-01, 5.0000000000000000e-01,
             5.0000000000000000e-01, 5.0000000000000000e-01,
             5.0000000000000000e-01, 5.0000000000000000e-01,
             5.0000000000000000e-01, 5.0000000000000000e-01,
             5.0000000000000000e-01, 5.0000000000000000e-01,
             5.0000000000000000e-01, 5.0000000000000000e-01,
             5.0000000000000000e-01, 5.0000000000000000e-01,
             5.0000000000000000e-01, 5.0000000000000000e-01,
             5.0000000000000000e-01, 5.0000000000000000e-01,
             5.0000000000000000e-01, 5.0000000000000000e-01,
             5.0000000000000000e-01, 5.0000000000000000e-01,
             5.0000000000000000e-01, 5.0000000000000000e-01,
             5.0000000000000000e-01, 5.0000000000000000e-01,
             5.0000000000000000e-01, 5.0000000000000000e-01,
             5.0000000000000000e-01, 5.0000000000000000e-01,
             -5.0000000000000000e-01, -5.0000000000000000e-01,
             -5.0000000000000000e-01, -5.0000000000000000e-01,
             -5.0000000000000000e-01, -4.1661900698326970e-01,
             -5.0000000000000000e-01, -5.0000000000000000e-01,
             -5.0000000000000000e-01, -5.0000000000000000e-01,
             -5.0000000000000000e-01, -5.0000000000000000e-01,
             -5.0000000000000000e-01, -5.0000000000000000e-01,
             -5.0000000000000000e-01, -5.0000000000000000e-01,
             -5.0000000000000000e-01, -5.0000000000000000e-01,
             -5.0000000000000000e-01, -5.0000000000000000e-01,
             -5.0000000000000000e-01, -5.0000000000000000e-01,
             -5.0000000000000000e-01, -5.0000000000000000e-01,
             -5.0000000000000000e-01, -5.0000000000000000e-01,
             -5.0000000000000000e-01, -5.0000000000000000e-01,
             -5.0000000000000000e-01, -5.0000000000000000e-01,
             -3.3870373950939675e-01, -5.0000000000000000e-01,
             -5.0000000000000000e-01, -5.0000000000000000e-01,
             -5.0000000000000000e-01, -5.0000000000000000e-01,
             -5.0000000000000000e-01, -5.0000000000000000e-01,
             -5.0000000000000000e-01 ]
